{"input_layer":[1,0,1],"hidden_layer":[0.8854380930895601,0.5770197769612425,0.46298159563863067,0.4621214194940904,0.7231778970215444,0.19883048200051842,0.9021110861598647,0.32929787883069644,0.3016202791338047,0.723738810765255,0.25112679827186574,0.5880182425323996,0.906809985991639,0.6955314460625494,0.8376018721995236,0.776938545285642],"output_layer":[0.4971455394080151],"weight_hidden":[[1.1343090789872756,1.2552637500611261,0.9106581153877272],[-0.10141482634318844,0.09118349797907362,0.4119659438522014],[-0.050569307518423055,0.005662903112064951,-0.0977757559012778],[-0.5271631607844002,-0.005280970187076214,0.37535798219598887],[0.5471454367650085,0.543374436414959,0.41313473674284185],[-0.9121999496125798,-0.614194406610032,-0.481419995571718],[1.6183484619902901,0.752215219930711,0.6025559023837292],[-0.9107263301296503,-0.22251905366308677,0.1993639723209795],[-0.9117505470938958,-0.4843727816703516,0.07215645193120665],[0.2582868339385317,0.886683737697487,0.7047969787177423],[-0.5938300735730531,-0.7154545992531467,-0.4987816215573487],[0.3617617184995586,0.8442636844349971,-0.005982816745188834],[1.2886026238138786,0.4477517022425724,0.9866897369827811],[0.3277159587561432,0.1558378102322017,0.4983924545148981],[1.0176617474469016,0.545401522581257,0.6228302479632205],[0.8438857930167016,0.42428793827275424,0.4040281467533165]],"weight_output":[[0.7004184028055649,-0.6305981252174773,-0.6559991061124577,-1.0186631629726415,0.20302204370239907,-1.8967397917322062,1.0099300647016305,-1.5295947653911586,-1.6349002831126438,0.09700378594923789,-1.6842301405123579,-0.1487720593548561,0.7533197889509864,-0.13141556062075008,0.5209799460219264,0.3023759833393855]],"err_output":[-0.028003496538008377],"rate":0.1,"mse":0.02426187871557182}